svm_type c_svc
kernel_type rbf
gamma 0.1
nr_class 2
total_sv 66
rho 8.47093
label 0 1
nr_sv 33 33
SV
100 1:0.84375 3:0.202822 
100 1:0.807567 3:0.221371 
100 1:1.03771 3:0.220707 
100 1:1.05994 3:0.153257 
100 1:1.02683 3:0.213302 
100 1:1.29239 3:0.136108 
100 1:0.861383 3:0.204023 
43.78248420771963 1:0.921969 3:0.175299 
100 1:1.07349 3:0.166544 
100 1:0.87395 3:0.184756 
100 1:1.10218 3:0.181703 
100 1:1.13401 3:0.138263 
100 1:1.02675 3:0.188616 
100 1:1.15832 3:0.166544 
100 1:1.27817 3:0.166899 
100 1:0.994058 3:0.192895 
100 1:1.20343 3:0.190726 
100 1:1.12696 3:0.16793 
100 1:0.89255 3:0.189653 
100 1:0.915126 3:0.30629 
54.55695312150332 1:0.689429 3:0.20344 
100 1:1.07561 3:0.194904 
100 1:1.15016 3:0.161197 
100 1:0.937776 3:0.195471 
100 1:1.02363 3:0.245759 
100 1:0.840879 3:0.19405 
100 1:1.17882 3:0.158482 
100 1:1.11233 3:0.186681 
100 1:0.949163 3:0.192717 
100 1:0.969463 2:1 3:0.128197 
100 1:0.757199 2:1 3:0.191364 
100 1:0.647679 2:1 3:0.1683 
100 1:0.867816 2:1 3:0.121517 
-100 1:1.16382 3:0.175198 
-100 1:1.16145 3:0.215489 
-100 1:1 3:0.178423 
-100 1:0.642013 3:0.220297 
-100 1:0.579687 3:0.216938 
-100 1:1.03147 3:0.156183 
-100 1:1.19259 3:0.231886 
-100 1:1.27479 3:0.216638 
-100 1:0.914244 3:0.183112 
-100 1:0.648145 3:0.234514 
-100 1:0.984756 3:0.274772 
-100 1:0.902711 3:0.226289 
-100 1:0.952215 3:0.16061 
-100 1:0.938046 3:0.206278 
-100 1:0.904643 3:0.19214 
-100 1:1.20301 3:0.228715 
-100 1:1.24971 3:0.228482 
-100 1:1.18402 3:0.159873 
-100 1:1.13028 3:0.190288 
-100 1:1.32178 3:0.240002 
-100 1:0.74752 3:0.14271 
-100 1:1.38867 3:0.20215 
-100 1:1.1104 3:0.205577 
-100 1:1.05126 3:0.16199 
-100 1:0.997086 3:0.259734 
-92.7132467459755 1:1.52444 3:0.183074 
-100 1:0.882166 3:0.204141 
-100 1:0.708282 3:0.206161 
-100 1:0.825085 2:1 3:0.167673 
-100 1:0.836601 2:1 3:0.183887 
-100 1:0.675032 2:1 3:0.182054 
-100 1:1.05999 2:1 3:0.135993 
-5.626190583247487 1:0.880282 2:1 3:0.191821 
